101 447 1731 819 2117 388 885 488 1517 244 1612 651 6874 1864 4084 932 2241 1297 5730 606 1847 398 1309 789 2017 470 1961 427 6478 2063 4401 868 2026 755 1723 1305 4744 657 2181 423 1476 580 2220 1031 2530 363 968 618 1538 294 1007 549 4399 589 3103 626 2437 2069 6720 842 2410 465 1124 937 1737 429 1099 332 3774 804 3427 561 2320 994 2365 1767 5685 874 2381 568 1106 542 2262 927 2895 361 1082 653 1667 333 1140 458 4867 606 3201 734 2489 1874 6635 786 2398 520 1102 790 2097 490 1104 377 4142 868 3653 575 2340 1014 2319 1494 5725 877 2433 532 1119 571 2254 980 3338 340 1052 618 1814 339 1104 589 4355 606 3360 719 2389 1803 6528 768 2408 493 1087 722 2409 461 1330 372 4003 838 3931 574 2361 1009 2337 1500 5769 864 2411 511 1111 587 2193 918 3211 342 1041 613 1876 336 1020 487 4407 607 3218 755 2333 1820 6686 816 2338 462 1120 850 2284 462 1341 371 3874 826 3760 609 2197 933 2356 1427 5675 922 2366 555 1140 1 4 
3 100
0.207384 1.92107 0.664417 -3.2736 -1.6279 -0.276636 1.21839 0.279473 -0.238859 -0.180638 -0.837115 0.360743 -1.51569 -0.00585307 0.239179 -0.918033 -0.506678 -0.428562 0.0685882 0.0181759 -1.04333 0.917503 0.757498 0.200855 -1.3526 0.00783702 -0.158338 -0.754097 0.142615 -1.26395 -1.45053 -0.363752 -0.0959139 -1.06323 0.975596 1.12477 -1.34325 0.377631 -1.61778 0.870331 -1.41784 0.786104 2.12447 1.28159 -1.25516 0.501927 1.10196 0.497589 -0.560357 0.761997 -1.23889 -0.213854 2.35717 1.24964 0.810323 -0.40202 -1.67232 -1.53961 -0.629496 -1.056 -0.151338 1.50116 3.74589 0.722359 -3.26281 0.790849 -0.579151 0.828796 0.581592 -0.272702 -1.83612 0.483517 0.854703 -0.351272 -1.30713 -1.19497 -1.1414 -0.227264 -0.395268 -1.0342 0.692701 2.8599 1.29938 -1.32611 -4.40522 -0.827816 -0.502372 1.67806 1.33616 -0.255092 -0.612041 1.19181 -2.21575 -0.12727 -1.77657 0.336501 0.310329 -0.098068 1.71362 0.657888 
0.0134014 -0.166075 -0.502359 3.9709 1.36893 0.555989 -3.57601 -3.01202 0.000496716 1.60063 -1.11395 -0.378211 -0.327471 -0.123789 -0.420578 1.08305 -0.126822 2.7386 -0.711711 -0.187114 0.0559523 4.39482 -3.03278 0.1598 -0.549057 2.12872 -0.72535 0.767478 -1.33128 -0.797159 -1.80642 0.465828 -0.810775 0.347851 1.46893 -0.000589268 2.46832 -0.69081 -0.191852 2.63787 0.449781 -0.597926 -7.08126 0.804391 -0.144637 1.26305 -1.01223 -1.60137 -1.61748 1.38078 3.26547 2.14938 -1.0729 -1.67444 0.864041 -0.614884 -0.870121 2.2453 0.00524828 -1.0283 -0.462396 -1.59309 -0.132518 0.040055 0.728861 -1.53826 1.63059 0.411711 0.111251 0.0812243 1.56229 3.11709 5.17878 -0.306328 1.10006 0.192933 1.02606 -0.182929 1.06102 -3.62393 -1.10536 -1.5033 -5.39968 -4.86597 0.794039 0.708308 -1.18021 0.939167 1.59551 -0.127501 -2.23031 3.25043 0.389207 -0.913183 -1.28413 1.45465 2.39836 1.87392 -1.96102 -4.43882 
-0.14328 0.562656 3.00993 -0.893627 0.0640229 -0.352756 2.68652 2.10008 0.0834432 -1.18922 0.836892 0.810217 0.370117 -0.840736 1.57165 0.0259775 -1.62982 -0.488134 0.257643 0.135633 -1.42056 -1.07466 0.123013 2.68751 2.51841 -1.22701 -1.87943 -0.943796 1.54586 0.867424 0.0957067 0.812961 0.163124 -0.350267 -1.80017 0.556868 -2.34994 -0.12245 -0.200502 -2.42819 -1.87339 -0.681471 3.7626 1.98042 1.59552 -0.580482 -0.0143815 -0.330463 1.39563 0.50203 -1.78271 -1.15989 2.16855 -0.146982 -1.15387 1.15199 -0.525034 -0.973889 -0.616818 -1.02361 -0.28171 0.513621 0.732105 0.715275 -1.05057 0.892291 -2.36376 -0.630719 -0.120914 0.412354 -1.77246 0.122446 -1.46221 0.452362 -0.904516 -0.120957 -0.22724 0.426056 0.408801 -0.608539 1.40781 2.0199 0.670566 1.06122 0.127459 -0.332211 0.247508 -0.448582 -0.737315 2.22169 -1.52686 -0.643143 -0.148639 -2.14893 0.129538 0.800609 -0.967927 -0.617618 1.34601 1.3494 
1 3
3.14466 -4.09323 2.49633 

1 4
0.0170078